{
    "0": {
        "num-units": 784,
        "activation-function": "relu"
    },
    "learning-rate": 0.05,
    "num-layers": 4,
    "1": {
        "num-units": 128,
        "activation-function": "relu",
        "weights": [
            [
                0.009085475467145443,
                0.006919859442859888,
                0.0035768544767051935,
                0.003217620775103569,
                0.0067758262157440186,
                0.0059971013106405735,
                0.0038873690646141768,
                0.001807684195227921,
                0.0050505963154137135,
                0.0030425507575273514,
                0.002739016665145755,
                0.009125716984272003,
                0.009739119559526443,
                0.0008220610325224698,
                0.0003140752960462123,
                0.0060163321904838085,
                0.004226586781442165,
                0.004451151937246323,
                0.006655281875282526,
                0.0028808126226067543,
                0.007601084653288126,
                0.005272414069622755,
                0.007897758856415749,
                0.00806926004588604,
                0.004375596530735493,
                0.009602265432476997,
                0.003327352227643132,
                0.0006700086523778737,
                0.0023468041326850653,
                0.007738265674561262,
                0.0033898029942065477,
                0.004819595254957676,
                0.006531787570565939,
                0.0008649068768136203,
                0.0028373352251946926,
                0.0025014535058289766,
                0.001345873111858964,
                0.007297759875655174,
                0.008907902985811234,
                0.001496685086749494,
                0.009889654815196991,
                0.0013914203736931086,
                0.0026915583293884993,
                0.001781201921403408,
                0.0029413048177957535,
                0.003317152848467231,
                0.005808965768665075,
                0.003403150476515293,
                0.0003187553375028074,
                0.003798473160713911,
                0.0027831385377794504,
                0.001790819107554853,
                0.005085676908493042,
                0.007101595867425203,
                0.00016240835248026997,
                0.007548538502305746,
                0.006800168193876743,
                0.008586366660892963,
                0.0053956471383571625,
                0.0073054153472185135,
                0.006422289647161961,
                0.006398545578122139,
                0.0010984871769323945,
                0.0030332892201840878,
                0.0026056976057589054,
                0.009054960682988167,
                0.009160367771983147,
                7.360128074651584e-05,
                0.008159949444234371,
                0.004233437590301037,
                0.0033549040090292692,
                0.010341217741370201,
                0.010058281011879444,
                0.006242827046662569,
                0.003666904289275408,
                0.0017049051821231842,
                0.008737003430724144,
                0.005587001331150532,
                0.007558336015790701,
                0.00976159144192934,
                0.002408644650131464,
                0.0013459306210279465,
                0.009715565480291843,
                0.0005597656709142029,
                0.0027309320867061615,
                0.0076227146200835705,
                0.009025728330016136,
                0.006475036032497883,
                0.0034718364477157593,
                0.009401446208357811,
                0.006778527982532978,
                0.004389543551951647,
                0.006168303545564413,
                0.008932200260460377,
                0.007939939387142658,
                0.0009709474979899824,
                0.006487972103059292,
                0.0062903729267418385,
                0.006765708327293396,
                0.004777431488037109,
                0.005236903205513954,
                0.0033921285066753626,
                -0.0009066641214303672,
                -0.0013205386931076646,
                -0.003295986680313945,
                0.003442326094955206,
                0.000854833866469562,
                0.0063859629444777966,
                0.007771081291139126,
                0.009915914386510849,
                0.005838840734213591,
                0.005188825540244579,
                0.009824463166296482,
                0.00753196282312274,
                0.004818293731659651,
                0.004443174693733454,
                0.006540459115058184,
                0.007579925935715437,
                0.006595995742827654,
                -0.000521987269166857,
                -0.0025178666692227125,
                -0.0011902042897418141,
                0.005336327012628317,
                0.007626677397638559,
                0.011659495532512665,
                0.01426483504474163,
                0.010248888283967972,
                -0.005089825950562954,
                -0.011758536100387573,
                -0.019552720710635185,
                -0.02404198981821537,
                -0.013271722011268139,
                -0.003974574618041515,
                0.016224753111600876,
                0.011419957503676414,
                0.007688726298511028,
                0.009971216320991516,
                0.007033522706478834,
                0.0014980098931118846,
                0.0010293071391060948,
                0.00989108718931675,
                0.0020857008639723063,
                0.009179205633699894,
                0.0009629028500057757,
                0.009601738303899765,
                0.005204287823289633,
                0.0058653210289776325,
                -0.0016776581760495901,
                -0.0012849252671003342,
                -0.00972574669867754,
                -0.012856869027018547,
                -0.00390253821387887,
                0.005901446100324392,
                0.008448189124464989,
                8.871137106325477e-05,
                -0.02204723283648491,
                -0.04917522519826889,
                -0.05998319387435913,
                -0.052290547639131546,
                -0.02558394894003868,
                0.001087120152078569,
                0.01564740017056465,
                0.013984276913106441,
                0.019270071759819984,
                0.017366424202919006,
                0.012353247962892056,
                0.005676859524101019,
                0.002167772501707077,
                0.009770713746547699,
                0.005121031776070595,
                0.0026930051390081644,
                0.0017472699983045459,
                0.008044207468628883,
                0.001269355183467269,
                0.001229344867169857,
                -0.004519656300544739,
                -0.00517632532864809,
                0.00020614941604435444,
                -0.018315648660063744,
                -0.003431787947192788,
                0.0019514348823577166,
                0.007836027070879936,
                0.004476576577872038,
                -0.019003640860319138,
                -0.060575295239686966,
                -0.0725417211651802,
                -0.06238977611064911,
                -0.027130957692861557,
                0.0011937994277104735,
                0.04275095462799072,
                0.041665833443403244,
                0.0180079136043787,
                0.013974347151815891,
                0.013936604373157024,
                0.01271140668541193,
                0.004148028325289488,
                5.252778282738291e-05,
                0.008280700072646141,
                0.0004598720988724381,
                0.0024023354053497314,
                0.0034847694914788008,
                0.0024782198015600443,
                -0.007581000681966543,
                -0.007668565027415752,
                -0.007966547273099422,
                -0.01092069037258625,
                -0.031104493886232376,
                -0.019954942166805267,
                -0.00047792098484933376,
                0.02117743156850338,
                0.012823440134525299,
                -0.006883648689836264,
                -0.04680493474006653,
                -0.10293735563755035,
                -0.11567189544439316,
                -0.06825695186853409,
                0.003972297068685293,
                0.04985038563609123,
                0.05726402625441551,
                0.029527124017477036,
                0.023965612053871155,
                0.027080640196800232,
                0.014466037973761559,
                0.0014491331530734897,
                0.005219289101660252,
                0.004642700310796499,
                0.0015336439246311784,
                -0.003599629970267415,
                -0.005425713956356049,
                -0.004062962718307972,
                0.0016088378615677357,
                0.004084092099219561,
                0.005273923277854919,
                -0.008755083195865154,
                -0.01937948539853096,
                -0.003323346609249711,
                0.006889464799314737,
                0.026481932029128075,
                0.05100439116358757,
                0.0288369320333004,
                -0.018549669533967972,
                -0.09920170903205872,
                -0.15035511553287506,
                -0.09076269716024399,
                -0.009632405824959278,
                0.04269275814294815,
                0.05678727477788925,
                0.04883581027388573,
                0.027044221758842468,
                0.03315473720431328,
                0.012094707228243351,
                0.005165013484656811,
                0.008162165991961956,
                0.009221500717103481,
                0.001129262731410563,
                -0.002868057694286108,
                -0.01685887575149536,
                -0.005745905451476574,
                -0.004841410554945469,
                -0.002476814901456237,
                -0.01087453868240118,
                -0.0072466349229216576,
                -0.007903768680989742,
                0.006391812581568956,
                0.011949168518185616,
                0.03407973796129227,
                0.07834925502538681,
                0.08410829305648804,
                0.03958265110850334,
                -0.06710939109325409,
                -0.14515215158462524,
                -0.11660648137331009,
                -0.037501171231269836,
                0.033408813178539276,
                0.05060857534408569,
                0.037465907633304596,
                0.006614186335355043,
                0.02450905181467533,
                0.02269289642572403,
                0.010171892121434212,
                0.0012370008043944836,
                0.006179839838296175,
                -0.004888614639639854,
                -0.004047377500683069,
                -0.010113585740327835,
                -0.009343840181827545,
                -0.0019283259753137827,
                -0.007675335742533207,
                -0.015035553835332394,
                -0.008640192449092865,
                -0.00757586257532239,
                0.009205479174852371,
                0.015803435817360878,
                0.008332389406859875,
                0.0383772999048233,
                0.11129452288150787,
                0.09694303572177887,
                -0.015766015276312828,
                -0.11712682247161865,
                -0.11015570163726807,
                -0.03592263162136078,
                0.03523148596286774,
                0.05392429977655411,
                0.05154799669981003,
                0.02801818959414959,
                0.03269697725772858,
                0.03308422118425369,
                0.00790651049464941,
                0.00046092449338175356,
                0.00883412640541792,
                -0.0019271832425147295,
                -0.013662947341799736,
                -0.007523161359131336,
                -0.0009778316598385572,
                0.005758587270975113,
                -0.00829548854380846,
                -0.008345047943294048,
                -0.016372375190258026,
                -0.013924549333751202,
                0.005006234627217054,
                -0.007548183668404818,
                -0.006566319148987532,
                0.014181532897055149,
                0.10249874740839005,
                0.11635822057723999,
                0.03778788819909096,
                -0.06265415251255035,
                -0.09581350535154343,
                -0.02999134548008442,
                0.023201769217848778,
                0.04968283325433731,
                0.03726160526275635,
                0.006511733401566744,
                0.022430958226323128,
                0.031062984839081764,
                0.0031946897506713867,
                0.007119735702872276,
                0.0009704254916869104,
                -0.0031264859717339277,
                -0.0180502962321043,
                -0.01995110511779785,
                0.012859651818871498,
                -0.0032177672255784273,
                0.009312793612480164,
                0.008489741012454033,
                -0.00029607181204482913,
                -0.008673083037137985,
                -0.041232265532016754,
                -0.04889257624745369,
                -0.015397857874631882,
                0.027339361608028412,
                0.095865897834301,
                0.13357040286064148,
                0.065501369535923,
                -0.047269199043512344,
                -0.09474440664052963,
                -0.040311239659786224,
                0.0013133077882230282,
                0.012773118913173676,
                0.02263731323182583,
                -0.007434200961142778,
                0.020219925791025162,
                0.037186723202466965,
                0.0033900642301887274,
                0.005887828767299652,
                0.003189051989465952,
                -0.010317280888557434,
                -0.030838534235954285,
                -0.01871337741613388,
                -0.0036561484448611736,
                0.005371158942580223,
                0.01694989576935768,
                0.02627604641020298,
                -0.002244430361315608,
                -0.054097678512334824,
                -0.07473982870578766,
                -0.034622956067323685,
                0.022614669054746628,
                0.0586930587887764,
                0.08969729393720627,
                0.1110227108001709,
                0.07019378989934921,
                -0.01280883140861988,
                -0.04698314890265465,
                -0.010071500204503536,
                -0.017625395208597183,
                -0.000452813517767936,
                0.014495640061795712,
                -0.010964850895106792,
                0.016428327187895775,
                0.03993874043226242,
                0.00725018884986639,
                0.007945463061332703,
                0.0019532530568540096,
                -0.00591662572696805,
                -0.028373051434755325,
                -0.013197130523622036,
                -0.0046065752394497395,
                0.007347394246608019,
                0.023019347339868546,
                0.019976383075118065,
                -0.019349664449691772,
                -0.06761377304792404,
                -0.031666968017816544,
                0.01790006272494793,
                0.047103747725486755,
                0.06138511002063751,
                0.07631850987672806,
                0.07753890752792358,
                0.04203876480460167,
                -0.007043405901640654,
                -0.018836738541722298,
                -0.007635892368853092,
                -0.018417276442050934,
                -0.016339469701051712,
                -0.00425580283626914,
                -0.02800806611776352,
                0.012179100885987282,
                0.04546186700463295,
                0.011404095217585564,
                0.0025649447925388813,
                0.005855686962604523,
                0.0012968600494787097,
                -0.029931308701634407,
                -0.00602406170219183,
                -0.018813634291291237,
                -0.0012798781972378492,
                0.03321830928325653,
                0.03515361621975899,
                -0.0009955904679372907,
                -0.04315750300884247,
                -0.0006723688566125929,
                0.021902931854128838,
                0.0252414308488369,
                0.03847593441605568,
                0.05011950060725212,
                0.05412068963050842,
                0.03501611575484276,
                -0.013914386741816998,
                -0.027391638606786728,
                -0.009712097235023975,
                -0.022617017850279808,
                -0.04773151874542236,
                -0.034128401428461075,
                -0.03960224986076355,
                0.002945506479591131,
                0.027924593538045883,
                0.009081852622330189,
                0.006919215898960829,
                -2.1642974388669245e-05,
                -0.005384418647736311,
                -0.02151375077664852,
                0.004071466624736786,
                -0.0131888622418046,
                0.011549543589353561,
                0.042733240872621536,
                0.03235921636223793,
                -0.003618240123614669,
                -0.034101299941539764,
                -0.006762753706425428,
                -0.008944446220993996,
                -0.005838003940880299,
                0.017184019088745117,
                0.029433997347950935,
                0.013730271719396114,
                -0.012182286009192467,
                -0.03234544023871422,
                -0.028132956475019455,
                -0.016670743003487587,
                -0.035596199333667755,
                -0.047499895095825195,
                -0.042157676070928574,
                -0.034133534878492355,
                0.009819870814681053,
                0.027919316664338112,
                0.003728662384673953,
                0.009255156852304935,
                0.0037645497359335423,
                0.004619428887963295,
                -0.012352964840829372,
                -0.0024203327484428883,
                -0.006238571368157864,
                0.00795458722859621,
                0.025004081428050995,
                0.023619700223207474,
                0.015097465366125107,
                -0.032567836344242096,
                0.0009345405851490796,
                0.004682273603975773,
                -0.002608983078971505,
                0.00894154328852892,
                0.005832341965287924,
                -0.02114751935005188,
                -0.04879731312394142,
                -0.050364211201667786,
                -0.017933251336216927,
                -0.0181562639772892,
                -0.03759206086397171,
                -0.05218571051955223,
                -0.03922437131404877,
                -0.02598065696656704,
                0.028396835550665855,
                0.0273324903100729,
                0.00264684297144413,
                0.008330983109772205,
                0.007866931147873402,
                0.00750188110396266,
                0.00014392983575817198,
                0.00855556782335043,
                -0.019810466095805168,
                0.007926970720291138,
                0.017191698774695396,
                0.02371234819293022,
                -0.002098292810842395,
                -0.014036232605576515,
                0.00830753892660141,
                0.00724057899788022,
                -0.005253124982118607,
                -0.021094664931297302,
                -0.02959885261952877,
                -0.051824431866407394,
                -0.05605883523821831,
                -0.052614208310842514,
                -0.029756376519799232,
                -0.022628583014011383,
                -0.051820892840623856,
                -0.05128458887338638,
                -0.05043656751513481,
                -0.012125211767852306,
                0.026826703920960426,
                0.019680101424455643,
                0.010389445349574089,
                0.0018785542342811823,
                0.00716692628338933,
                0.001582710538059473,
                -0.012724025174975395,
                0.0029901694506406784,
                -0.011007282882928848,
                0.0011558628175407648,
                0.022681867703795433,
                0.01605009101331234,
                0.004107434768229723,
                0.005488432943820953,
                0.014395209029316902,
                0.016855161637067795,
                0.017320439219474792,
                -0.01814310811460018,
                -0.04340476170182228,
                -0.06671271473169327,
                -0.06466782838106155,
                -0.053991928696632385,
                -0.03341968357563019,
                -0.027735844254493713,
                -0.05283116549253464,
                -0.05393200367689133,
                -0.04708251729607582,
                -0.0067427498288452625,
                0.027911916375160217,
                0.019860070198774338,
                0.00793930422514677,
                0.008133911527693272,
                0.004046643152832985,
                0.0087371114641428,
                -0.006619944702833891,
                0.0019028473179787397,
                -0.0029139595571905375,
                0.004800192080438137,
                0.015419679693877697,
                0.015656456351280212,
                0.020145371556282043,
                0.029445618391036987,
                0.03555263578891754,
                0.04735453426837921,
                0.04249361529946327,
                -0.007465716917067766,
                -0.03620314225554466,
                -0.06259950250387192,
                -0.0517704151570797,
                -0.029316799715161324,
                -0.03569995239377022,
                -0.04772568494081497,
                -0.03977811336517334,
                -0.04833387956023216,
                -0.0261837225407362,
                0.006017901003360748,
                0.022826096042990685,
                0.02060609683394432,
                0.008107143454253674,
                0.00621012831106782,
                0.005671837832778692,
                0.0008657692815177143,
                -0.0008842309471219778,
                0.0031896079890429974,
                -0.016732800751924515,
                -0.02359588071703911,
                0.0006187164690345526,
                0.024144325405359268,
                0.03609112650156021,
                0.03648144379258156,
                0.029782194644212723,
                0.030279146507382393,
                0.021906500682234764,
                -0.0005810875445604324,
                -0.025139447301626205,
                -0.03734702616930008,
                -0.03936639428138733,
                -0.03525920212268829,
                -0.035287044942379,
                -0.041350107640028,
                -0.039330169558525085,
                -0.03657372668385506,
                -0.013747255317866802,
                0.003825768828392029,
                0.014859216287732124,
                0.007122723385691643,
                0.004921197425574064,
                0.0001771533425198868,
                0.0008406392298638821,
                -0.0012668047565966845,
                0.004501350689679384,
                -0.0007151824538595974,
                -0.008518538437783718,
                -0.00920258928090334,
                -0.003772996598854661,
                0.0027246486861258745,
                0.03315189853310585,
                0.03779793530702591,
                0.04124920815229416,
                0.02126026339828968,
                -0.0031034727580845356,
                -0.012370807118713856,
                -0.005727722775191069,
                -0.020153654739260674,
                -0.039529915899038315,
                -0.04440033808350563,
                -0.030496496707201004,
                -0.018343297764658928,
                -0.022923963144421577,
                -0.022444138303399086,
                -0.0058762552216649055,
                0.006123086903244257,
                0.0074289520271122456,
                0.0019618142396211624,
                0.0070028156042099,
                0.004902692977339029,
                0.0011981900315731764,
                0.006557120010256767,
                0.00026094287750311196,
                0.01057400368154049,
                0.000827572017442435,
                0.009381976909935474,
                0.006271196063607931,
                0.010666179470717907,
                0.0238325372338295,
                0.04399947449564934,
                0.044269464910030365,
                0.013612308539450169,
                -0.011719354428350925,
                -0.02785130776464939,
                -0.02175762876868248,
                -0.022189388051629066,
                -0.02708427794277668,
                -0.034091219305992126,
                -0.020450999960303307,
                -0.01876390352845192,
                -0.01425208617001772,
                -0.0059462315402925014,
                0.0010332836536690593,
                0.007528853602707386,
                0.004752025473862886,
                0.0031863139010965824,
                0.004099741578102112,
                0.00475971307605505,
                0.0008816778426989913,
                0.00813523679971695,
                0.003297547111287713,
                0.012799584306776524,
                0.015030018985271454,
                0.01952909305691719,
                0.02277810126543045,
                0.033709168434143066,
                0.04509412869811058,
                0.041313376277685165,
                0.040335822850465775,
                0.009063893929123878,
                -0.01206651609390974,
                -0.02293248288333416,
                -0.025735147297382355,
                -0.022689662873744965,
                -0.026493627578020096,
                -0.023981429636478424,
                -0.018828747794032097,
                -0.016891691833734512,
                -0.007636730093508959,
                0.0021316944621503353,
                0.0028951375279575586,
                0.00042796542402356863,
                0.009778383187949657,
                0.007450529839843512,
                0.004428599961102009,
                0.008422215469181538,
                0.008028550073504448,
                0.003104577073827386,
                0.008397558704018593,
                0.007335417903959751,
                0.015256348066031933,
                0.02005080319941044,
                0.022370239719748497,
                0.028467971831560135,
                0.030817996710538864,
                0.03784336894750595,
                0.029536304995417595,
                0.01259114220738411,
                -0.005761754233390093,
                -0.005960067734122276,
                -0.0153943607583642,
                -0.01390762347728014,
                -0.022758785635232925,
                -0.010863086208701134,
                -0.004907175432890654,
                0.0018226078245788813,
                -0.004883662331849337,
                -0.0008084953296929598,
                0.008364463225007057,
                0.006721107289195061,
                0.004402817226946354,
                0.003870704211294651,
                0.002534120576456189,
                0.008648330345749855,
                0.0030899744015187025,
                0.003952542319893837,
                0.008579274639487267,
                0.005418820306658745,
                0.0027101263403892517,
                0.009181797504425049,
                0.014527380466461182,
                0.013029266148805618,
                0.010352898389101028,
                0.010637753643095493,
                0.009663164615631104,
                0.004780788905918598,
                0.0067536309361457825,
                -0.001973673701286316,
                0.0009781938279047608,
                -0.0037807163316756487,
                0.0009123048512265086,
                0.0029878478962928057,
                0.00020317622693255544,
                0.008574767969548702,
                0.001826994470320642,
                0.002368272515013814,
                0.0009353228961117566,
                0.004391333553940058,
                0.003879366908222437,
                0.007460403256118298,
                0.006070478353649378,
                0.0028491246048361063,
                0.006549523212015629,
                0.00023353575670626014,
                0.007917131297290325,
                0.001847369596362114,
                0.0075060962699353695,
                0.00535551318898797,
                0.003054218366742134,
                0.002094849245622754,
                0.0015684078680351377,
                0.006105454638600349,
                0.0056989178992807865,
                0.005768277682363987,
                0.001791255665011704,
                0.0004587748844642192,
                0.0009936962742358446,
                0.0019197334768250585,
                0.005277652759104967,
                0.004636482801288366,
                0.0074868290685117245,
                0.002528261160477996,
                0.0024604657664895058,
                0.00548388110473752,
                0.005357565823942423,
                0.005035306792706251,
                0.00016244649305008352,
                0.003543451428413391,
                0.0075037614442408085
            ],
            [
                0.005430447403341532,
                0.007490838412195444,
                0.00229025655426085,
                0.007709120865911245,
                0.0042413873597979546,
                0.0041569494642317295,
                0.0007370942621491849,
                0.006583325564861298,
                0.0033722033258527517,
                0.0057940105907619,
                0.006723423954099417,
                0.009220092557370663,
                0.004863333888351917,
                0.00913331937044859,
                0.005866255145519972,
                0.000274347432423383,
                0.009081704542040825,
                0.0014865975826978683,
                0.007969672791659832,
                0.00680462084710598,
                0.002037891186773777,
                0.009841394610702991,
                0.0004129348963033408,
                0.002550220349803567,
                0.008253409527242184,
                0.0055939070880413055,
                0.0013730126665905118,
                0.001648315112106502,
                0.0008066731388680637,
                0.004614015109837055,
                0.0033293163869529963,
                0.0044862013310194016,
                0.007420224137604237,
                0.006843221839517355,
                0.0039888001047074795,
                0.007259789854288101,
                0.00823819637298584,
                0.004303086549043655,
                2.4778953957138583e-05,
                0.003644574200734496,
                0.0018646715907379985,
                -4.3311309127602726e-05,
                0.0029099821113049984,
                0.0037667888682335615,
                0.007176713086664677,
                0.002208608202636242,
                0.006677156779915094,
                0.009929748252034187,
                0.002952887210994959,
                0.0036923515144735575,
                0.0018843298312276602,
                0.007313950452953577,
                0.005979863461107016,
                0.0047437697649002075,
                0.00110801518894732,
                0.009134815074503422,
                0.007162297144532204,
                0.003765951842069626,
                0.007134181912988424,
                0.006703877355903387,
                0.00420438963919878,
                0.008160784840583801,
                0.0010311166988685727,
                0.0037170506548136473,
                0.0007857427699491382,
                0.007483570370823145,
                0.004993530455976725,
                0.008222252130508423,
                -2.6443931346875615e-05,
                0.0034852856770157814,
                -4.425668157637119e-05,
                0.00736475782468915,
                0.0027699791826307774,
                0.00678217364475131,
                0.010749856941401958,
                0.006500186398625374,
                0.009215446189045906,
                0.00955386832356453,
                0.011762183159589767,
                0.002464165212586522,
                0.0052435933612287045,
                0.0026685225311666727,
                0.005343863274902105,
                0.0077253966592252254,
                0.008104805834591389,
                0.006637293379753828,
                0.002035419922322035,
                0.00035006809048354626,
                0.0008116429671645164,
                0.008719000965356827,
                0.0012183231301605701,
                0.00812534336000681,
                0.004352327901870012,
                0.0026577527169138193,
                0.0054489062167704105,
                0.005805421154946089,
                0.005544782616198063,
                0.003173018107190728,
                0.0030342231038957834,
                -0.0029069145675748587,
                0.005487749818712473,
                0.010668562725186348,
                0.012804965488612652,
                0.013139855116605759,
                0.01991846412420273,
                0.018831735476851463,
                0.01438257284462452,
                0.004255800973623991,
                0.007720556575804949,
                0.009242022410035133,
                0.0027247800026088953,
                0.004640946164727211,
                0.0010161369573324919,
                0.0040955073200166225,
                0.006810963619500399,
                0.00034670744207687676,
                0.007779939100146294,
                0.002819380722939968,
                0.007292056456208229,
                0.006994917523115873,
                0.010532664135098457,
                0.005236230790615082,
                0.00696874363347888,
                0.0047311787493526936,
                -0.0033964274916797876,
                -0.00688202166929841,
                -0.01829732395708561,
                -0.015922466292977333,
                -0.010053684934973717,
                0.0036192701663821936,
                0.007719909772276878,
                0.021931707859039307,
                0.02475763112306595,
                0.02639978751540184,
                0.01696435548365116,
                0.01147072110325098,
                -8.470818283967674e-05,
                0.00021104792540427297,
                0.0068982564844191074,
                0.00919403601437807,
                0.0002177894057240337,
                0.0060355933383107185,
                0.009591834619641304,
                0.0042638168670237064,
                0.00122691853903234,
                0.0034355963580310345,
                0.005986034870147705,
                0.008337173610925674,
                0.007185172755271196,
                0.006482570432126522,
                0.003751820884644985,
                0.005025133956223726,
                -0.008702686987817287,
                -0.01901371031999588,
                -0.0211541298776865,
                -0.02606399729847908,
                -0.01911274529993534,
                0.00042304713861085474,
                0.006191120017319918,
                0.0158961471170187,
                0.022139376029372215,
                0.015292501077055931,
                0.012169497087597847,
                0.012519333511590958,
                -0.0026276116259396076,
                -0.0050163245759904385,
                0.003513408824801445,
                0.009711996652185917,
                0.0011725705116987228,
                0.001164922141470015,
                0.008333345875144005,
                0.010427366010844707,
                0.009254822507500648,
                0.0029020055662840605,
                0.0008104199660010636,
                0.0017595244571566582,
                0.0018902900628745556,
                0.011261138133704662,
                0.007593642920255661,
                0.0005327367689460516,
                -0.00751314265653491,
                -0.017265133559703827,
                -0.022348841652274132,
                -0.028838373720645905,
                -0.027761278674006462,
                -0.00618750462308526,
                0.014504055492579937,
                0.011998293921351433,
                0.026095788925886154,
                0.01858096942305565,
                0.005194896832108498,
                -0.00522687379270792,
                -0.005069402512162924,
                -0.0046203965321183205,
                -0.0029741222970187664,
                0.007803305517882109,
                0.0003340607800055295,
                0.005248209461569786,
                0.011502216570079327,
                0.008439365774393082,
                0.005781912244856358,
                0.008793694898486137,
                0.009191111661493778,
                0.007284604944288731,
                0.008146938867866993,
                0.01519828476011753,
                0.011949609965085983,
                0.0076521956361830235,
                -0.004543362185359001,
                -0.015342826955020428,
                -0.022205466404557228,
                -0.023953156545758247,
                -0.03576770797371864,
                -0.02254892699420452,
                0.004315876867622137,
                0.018732886761426926,
                0.0313694141805172,
                0.013888070359826088,
                -0.004005232825875282,
                -0.016910159960389137,
                -0.006157867144793272,
                -0.0112459696829319,
                -0.0021740912925451994,
                0.009212764911353588,
                0.008780189789831638,
                0.003189862472936511,
                0.009118077345192432,
                0.013908267952501774,
                0.008575750514864922,
                0.012584561482071877,
                0.00762381823733449,
                0.011194508522748947,
                0.007200593128800392,
                0.017675856128335,
                0.015912985429167747,
                0.00019543347298167646,
                -0.004396913573145866,
                -0.0009813132928684354,
                -0.0057766130194067955,
                -0.016490371897816658,
                -0.038878049701452255,
                -0.027028415352106094,
                -0.0035551157779991627,
                0.03298425301909447,
                0.04590953141450882,
                0.02087833732366562,
                -0.0005247960216365755,
                -0.018148105591535568,
                -0.007718097884207964,
                -0.0038702432066202164,
                -0.006046236027032137,
                0.004954500123858452,
                0.0022534923627972603,
                0.003805226180702448,
                0.008500797674059868,
                0.015106241218745708,
                0.01783146522939205,
                0.01060908380895853,
                0.007876342162489891,
                -0.003988875076174736,
                0.004971781279891729,
                0.009918550960719585,
                0.0031983444932848215,
                0.0059027052484452724,
                0.0027259583584964275,
                0.011238062754273415,
                0.0007469317642971873,
                -0.01206632237881422,
                -0.01499324943870306,
                -0.015481757931411266,
                0.003402401227504015,
                0.03859715908765793,
                0.05380365252494812,
                0.022821515798568726,
                0.011206569150090218,
                -0.006441724486649036,
                0.00518073933199048,
                -1.801140751922503e-05,
                -0.0059308847412467,
                0.0027511774096637964,
                0.0036138533614575863,
                0.0024617172311991453,
                0.011749309487640858,
                0.01819266751408577,
                0.025049850344657898,
                0.015555372461676598,
                0.00028913249843753874,
                0.00036346373963169754,
                0.006676428485661745,
                0.005409162491559982,
                0.014764057472348213,
                0.0019211765611544251,
                0.013665634207427502,
                0.0021369745954871178,
                -0.006895719561725855,
                -0.013290871866047382,
                -0.01247976440936327,
                -0.004197598434984684,
                0.010882009752094746,
                0.04681409150362015,
                0.04658036679029465,
                0.02736499346792698,
                0.0050386060029268265,
                0.002375017385929823,
                -0.006662861444056034,
                -2.2512003852170892e-05,
                0.001634298707358539,
                -0.00012438039993867278,
                0.008055501617491245,
                0.009631730616092682,
                0.012768683955073357,
                0.027309399098157883,
                0.028868209570646286,
                0.00019970236462540925,
                -0.006032224278897047,
                -0.008675022050738335,
                -0.00453232740983367,
                0.008967678062617779,
                0.011174985207617283,
                0.006571732461452484,
                0.0077188145369291306,
                -0.0039097038097679615,
                -0.022347351536154747,
                -0.025759665295481682,
                -0.002219420624896884,
                0.005521581508219242,
                0.02287200838327408,
                0.042845968157052994,
                0.0547105111181736,
                0.03679720312356949,
                0.01206754520535469,
                0.004560309462249279,
                0.0013528281124308705,
                0.013375414535403252,
                -0.0007558477227576077,
                0.008626039139926434,
                0.002656887983903289,
                0.007126663811504841,
                0.015581490471959114,
                0.032070599496364594,
                0.02074379101395607,
                -0.0011137757683172822,
                -0.013907341286540031,
                -0.01982402242720127,
                -0.010397584177553654,
                -0.00695981876924634,
                0.004715584218502045,
                -0.00021108242799527943,
                -0.0013593226904049516,
                -0.013464708812534809,
                -0.031685374677181244,
                -0.010383997112512589,
                0.016128744930028915,
                0.007688781712204218,
                0.0150981480255723,
                0.047849591821432114,
                0.05006201192736626,
                0.0348813496530056,
                0.014219182543456554,
                0.010012931190431118,
                0.012464918196201324,
                0.012737343087792397,
                0.006735255476087332,
                0.0019029602408409119,
                0.0007010216941125691,
                0.008178994059562683,
                0.013584036380052567,
                0.031194530427455902,
                0.016803951933979988,
                0.0041902996599674225,
                -0.015313918702304363,
                -0.03007284738123417,
                -0.01773385889828205,
                -0.003989061806350946,
                0.010302235372364521,
                0.00764184445142746,
                -0.010290306061506271,
                -0.018617067486047745,
                -0.011143343523144722,
                0.02514580450952053,
                0.038880154490470886,
                0.016541486606001854,
                0.012567310594022274,
                0.05075528472661972,
                0.04640514403581619,
                0.02923775464296341,
                0.002598681254312396,
                -0.004115194547921419,
                0.029280519112944603,
                0.01822109892964363,
                -0.00444573862478137,
                0.007082742173224688,
                0.0040148356929421425,
                0.0015590995317324996,
                0.010473370552062988,
                0.02661804109811783,
                0.017658565193414688,
                0.002747398568317294,
                -0.02472137100994587,
                -0.030569061636924744,
                -0.012942144647240639,
                0.00660158134996891,
                0.00975514855235815,
                -0.007251192815601826,
                -0.010904023423790932,
                -0.011350048705935478,
                0.006294379010796547,
                0.02020443230867386,
                0.02980896271765232,
                0.00688808923587203,
                0.004793436732143164,
                0.036977797746658325,
                0.04460626095533371,
                0.027455467730760574,
                -0.0015025429893285036,
                -0.0009682077215984464,
                0.03971114382147789,
                0.006671844981610775,
                -0.009282857179641724,
                0.005578642711043358,
                0.009764019399881363,
                0.004185690078884363,
                0.012031983584165573,
                0.02603483945131302,
                0.021802406758069992,
                0.001130838179960847,
                -0.024332314729690552,
                -0.03390999883413315,
                -0.02221277542412281,
                -0.0031957433093339205,
                -0.0026881599333137274,
                -0.030093636363744736,
                -0.03466667979955673,
                -0.0361541248857975,
                -0.01169996801763773,
                0.0025527626276016235,
                0.001931590959429741,
                -0.00522734085097909,
                0.01450819056481123,
                0.03195978328585625,
                0.03604884818196297,
                0.02660856395959854,
                0.00795358419418335,
                0.009541060775518417,
                0.031180255115032196,
                0.009547988884150982,
                -0.006284555420279503,
                0.0070307282730937,
                0.0026332507841289043,
                0.010759402997791767,
                0.010584916919469833,
                0.028927339240908623,
                0.01719086989760399,
                0.011080017313361168,
                -0.02701587975025177,
                -0.028409503400325775,
                -0.015012653544545174,
                -0.003440260887145996,
                0.003494417294859886,
                -0.025119349360466003,
                -0.03689388930797577,
                -0.026519637554883957,
                -0.010033340193331242,
                -9.275993215851486e-05,
                -0.011482395231723785,
                -0.010883605107665062,
                0.009915822185575962,
                0.02470487914979458,
                0.029468409717082977,
                0.01605762541294098,
                0.01428428664803505,
                0.008863854221999645,
                0.02367263473570347,
                0.015699287876486778,
                -0.001123150927014649,
                0.007547947112470865,
                0.009049729444086552,
                0.010716305114328861,
                0.014703111723065376,
                0.021202141419053078,
                0.021074995398521423,
                0.009151916019618511,
                -0.028389986604452133,
                -0.027883753180503845,
                -0.011042517609894276,
                -0.004895711317658424,
                0.003371268743649125,
                -0.011103630997240543,
                -0.025278808549046516,
                -0.01916724443435669,
                -0.011491644196212292,
                -0.026691464707255363,
                -0.02631334401667118,
                -0.006946285255253315,
                0.00778465811163187,
                0.03015359677374363,
                0.0231936052441597,
                0.0244505163282156,
                0.017528533935546875,
                0.00969525147229433,
                0.020867351442575455,
                0.016885794699192047,
                0.006339987739920616,
                0.004351533949375153,
                0.004959586076438427,
                0.008865880779922009,
                0.011834422126412392,
                0.02204929292201996,
                0.024157442152500153,
                -0.0021498012356460094,
                -0.024677548557519913,
                -0.030617590993642807,
                -0.011240311898291111,
                -0.003203187370672822,
                0.0020725138019770384,
                -0.011863244697451591,
                -0.019626140594482422,
                -0.0013644614955410361,
                -0.0026186846662312746,
                -0.019530298188328743,
                -0.013818250969052315,
                -0.0066886115819215775,
                0.012952418066561222,
                0.022181052714586258,
                0.03118579275906086,
                0.02132268249988556,
                0.019684718921780586,
                0.01068179216235876,
                0.02087257243692875,
                0.012535491958260536,
                0.007114752661436796,
                0.0012760187964886427,
                0.007940108887851238,
                0.003930160775780678,
                0.010651323944330215,
                0.01768990233540535,
                0.00816410593688488,
                -0.0018680451903492212,
                -0.016791068017482758,
                -0.02150779590010643,
                -0.004623314365744591,
                -0.004146767780184746,
                -0.0045533073134720325,
                -0.011057190597057343,
                -0.020595259964466095,
                -0.004420983139425516,
                -0.0179271399974823,
                -0.02118089236319065,
                -0.0020405175164341927,
                0.004442051984369755,
                0.005182995926588774,
                0.00602333340793848,
                0.011876661330461502,
                0.017177052795886993,
                0.017711520195007324,
                0.003945136908441782,
                0.0008473854977637529,
                0.0022971429862082005,
                0.005478904582560062,
                0.00946131907403469,
                0.008611119352281094,
                0.0035111429169774055,
                0.007854217663407326,
                0.010797667317092419,
                -0.0028811185620725155,
                -0.0039521376602351665,
                -0.009971997700631618,
                -0.013817730359733105,
                0.010295900516211987,
                0.00619541248306632,
                0.011321068741381168,
                -0.016982004046440125,
                -0.015971656888723373,
                -0.019109070301055908,
                -0.01835774816572666,
                -0.0032206992618739605,
                0.002014779020100832,
                -0.0045042396523058414,
                -0.0006878017447888851,
                0.002954336581751704,
                0.006305393297225237,
                0.002739922609180212,
                0.011959647759795189,
                0.003513522446155548,
                -0.001234077732078731,
                -0.003104213159531355,
                0.00608861306682229,
                0.0004131319001317024,
                0.004757498390972614,
                0.004467104095965624,
                0.008056717924773693,
                0.0043082451447844505,
                0.00027448561741039157,
                -0.00504331337288022,
                -0.0054922751151025295,
                -0.006319102831184864,
                0.009028653614223003,
                0.014273209497332573,
                0.003401331603527069,
                -0.01060026977211237,
                -0.028039030730724335,
                -0.02186625823378563,
                -0.0062158722430467606,
                -0.0029745467472821474,
                0.00120474339928478,
                0.0035630539059638977,
                0.009992300532758236,
                0.014587527140974998,
                0.014778980053961277,
                0.013307865709066391,
                0.00875528808683157,
                0.007467275485396385,
                -0.00324808107689023,
                0.000347074557794258,
                0.004978165961802006,
                0.0017093841452151537,
                0.00915664341300726,
                0.008873817510902882,
                0.008363577537238598,
                0.0027302508242428303,
                -0.004850767552852631,
                -0.006917133927345276,
                -0.008261137641966343,
                0.00428016996011138,
                0.021227769553661346,
                0.021196117624640465,
                0.01400567777454853,
                -0.0023069060407578945,
                -0.030009577050805092,
                -0.019536344334483147,
                -0.011824698187410831,
                -0.0070739127695560455,
                0.0018493232782930136,
                0.01422114111483097,
                0.018709508702158928,
                0.027733677998185158,
                0.028518149629235268,
                0.029912738129496574,
                0.011140163987874985,
                0.007324127946048975,
                0.0004990706220269203,
                -0.0012177458265796304,
                3.523644181768759e-06,
                0.0058920616284012794,
                0.009034297429025173,
                0.007593426387757063,
                0.002322772517800331,
                0.0070588914677500725,
                -0.006090535316616297,
                -0.005231036804616451,
                0.007453684229403734,
                0.014160558581352234,
                0.03005773387849331,
                0.037998151034116745,
                0.04270266741514206,
                0.020132483914494514,
                -0.002896462334319949,
                -0.0007162943365983665,
                0.002332158852368593,
                0.002971900859847665,
                0.012751440517604351,
                0.020748216658830643,
                0.024748332798480988,
                0.03591841086745262,
                0.03374198451638222,
                0.0247145127505064,
                0.007005305960774422,
                0.0024599148891866207,
                0.005027969367802143,
                0.002757542533800006,
                0.007622993551194668,
                0.002549967262893915,
                0.00417132256552577,
                0.003193330019712448,
                0.008904366753995419,
                0.005584190599620342,
                0.0003953396517317742,
                0.003333207918331027,
                0.016354894265532494,
                0.030277948826551437,
                0.036502305418252945,
                0.05411019176244736,
                0.052858058363199234,
                0.02920410968363285,
                0.006019075866788626,
                0.00453103706240654,
                0.011403519660234451,
                0.01777813211083412,
                0.015448395162820816,
                0.013001251965761185,
                0.024035299196839333,
                0.027365300804376602,
                0.017542680725455284,
                0.009102272801101208,
                0.007943614386022091,
                0.006363571155816317,
                0.0029419290367513895,
                0.005226441193372011,
                0.005327250808477402,
                0.001931889564730227,
                0.00632089888677001,
                0.0020000666845589876,
                0.0032947203144431114,
                0.006327456794679165,
                0.006558740045875311,
                0.006994160823523998,
                0.012152168899774551,
                0.024169495329260826,
                0.03599026799201965,
                0.03838348016142845,
                0.0328376330435276,
                0.026014108210802078,
                0.00423169881105423,
                0.0026202676817774773,
                0.00931168906390667,
                0.014005417004227638,
                0.007899347692728043,
                0.010808898136019707,
                0.012682746164500713,
                0.011095423251390457,
                0.008758137002587318,
                0.009767171926796436,
                0.006873112637549639,
                0.00107366603333503,
                0.0005751692806370556,
                0.006843394134193659,
                0.004003344103693962,
                0.009303591214120388,
                0.007284163497388363,
                0.0033367101568728685,
                0.00046866058255545795,
                0.003882192075252533,
                0.003823058446869254,
                0.003940992522984743,
                0.010680224746465683,
                0.0048636095598340034,
                0.012312238104641438,
                0.011649491265416145,
                0.017346104606986046,
                0.008592416532337666,
                0.010695043951272964,
                0.007565602194517851,
                0.006888954900205135,
                0.005133533384650946,
                0.003244259860366583,
                0.0030104592442512512,
                0.007317759562283754,
                0.005334826651960611,
                0.0005718677421100438,
                0.003784993663430214,
                0.007971575483679771,
                0.005712621379643679,
                0.009153364226222038,
                0.000794807099737227,
                0.0019967430271208286,
                0.0042659686878323555,
                0.008110439404845238,
                0.0075454083271324635,
                0.004598543979227543,
                0.008573330007493496,
                0.008504383265972137,
                0.00826986227184534,
                0.0038065235130488873,
                0.0027023074217140675,
                0.004325236659497023,
                0.003197762882336974,
                0.0076802801340818405,
                0.0030632922425866127,
                0.0060403356328606606,
                0.0011286195367574692,
                0.0027722176164388657,
                0.009665451943874359,
                0.0033679166808724403,
                0.0061873155646026134,
                0.00773813109844923,
                0.0006381376879289746,
                0.003445189679041505,
                0.001176007790490985,
                0.004060457460582256,
                0.004085277207195759,
                0.0016055046580731869,
                0.00039087948971427977,
                0.009227636270225048,
                0.0039241015911102295
            ],
            [
                0.008685584180057049,
                0.008673742413520813,
                0.0057163299061357975,
                0.0022616081405431032,
                0.0016737221740186214,
                8.331298886332661e-05,
                0.0005542021826840937,
                0.0005077478126622736,
                0.0018674933817237616,
                0.008509836159646511,
                0.002210693433880806,
                0.00783509574830532,
                0.007710967678576708,
                0.005695338826626539,
                0.002559208543971181,
                0.0033765172120183706,
                0.0021809053141623735,
                0.009223923087120056,
                0.0013675274094566703,
                0.004591033793985844,
                0.0071336571127176285,
                0.00789676420390606,
                0.0031001619063317776,
                0.00448404299095273,
                0.00335455103777349,
                0.009966480545699596,
                0.0034014105331152678,
                8.095323573797941e-05,
                0.0013155096676200628,
                0.008291575126349926,
                0.0032654653768986464,
                0.003544213715940714,
                0.006428806111216545,
                0.0028839497826993465,
                0.006852456368505955,
                0.008226732723414898,
                0.001128431991674006,
                0.003469226649031043,
                0.0024251178838312626,
                0.00021601509070023894,
                0.0016611465252935886,
                0.009018568322062492,
                0.004593213088810444,
                0.007930474355816841,
                0.008928237482905388,
                0.00615905225276947,
                0.0041613830253481865,
                0.0054591200314462185,
                0.009347354993224144,
                0.005064274650067091,
                0.0007208288297988474,
                0.001383944065310061,
                0.009882603771984577,
                0.0038348697125911713,
                0.0010567301651462913,
                0.00634742621332407,
                0.004962777253240347,
                0.0009189879638142884,
                0.004250733181834221,
                0.0016320684226229787,
                0.0029420005157589912,
                0.00473988801240921,
                0.0053498405031859875,
                0.004651508294045925,
                0.0018334367778152227,
                0.0023967698216438293,
                -0.0013587212888523936,
                -0.002912553958594799,
                0.00015068579523358494,
                0.0003486593486741185,
                0.00517607107758522,
                0.008787580765783787,
                0.0027780216187238693,
                0.010318276472389698,
                0.008725379593670368,
                0.0029251864179968834,
                0.009847152978181839,
                0.005700098816305399,
                0.009037908166646957,
                0.0057917102240026,
                0.003067425452172756,
                0.0009385106386616826,
                0.004674190655350685,
                0.006764834746718407,
                0.007832801900804043,
                0.005275689996778965,
                0.007232618052512407,
                0.007390534970909357,
                0.006955289281904697,
                0.004050025250762701,
                0.0051827398128807545,
                -0.005379985552281141,
                -0.006599402520805597,
                -0.011159106157720089,
                -0.007497559767216444,
                -0.012112698517739773,
                -0.01489181350916624,
                -0.00843288004398346,
                -0.0031331670470535755,
                -0.00416654022410512,
                -0.004220325034111738,
                -0.0017849659780040383,
                -0.0033353446051478386,
                0.0009685076074674726,
                -0.00013838258746545762,
                0.008593263104557991,
                0.010497882030904293,
                0.009282280690968037,
                0.011922410689294338,
                0.006025642156600952,
                0.0065608243457973,
                0.0006219660863280296,
                0.004799996502697468,
                0.0020595265086740255,
                0.00998266413807869,
                0.00328853284008801,
                0.005135407205671072,
                0.003954185172915459,
                -0.0045266542583703995,
                -0.0055971331894397736,
                -0.00747990608215332,
                -0.01438054908066988,
                -0.010617543011903763,
                -0.01670459285378456,
                -0.021283477544784546,
                -0.018262479454278946,
                -0.01927049644291401,
                -0.011706610210239887,
                -0.016278903931379318,
                -0.007159029133617878,
                -0.0038960170932114124,
                0.000463154778117314,
                0.008072670549154282,
                0.009152349084615707,
                0.008005491457879543,
                0.006003531161695719,
                -0.004989806562662125,
                0.001833542250096798,
                0.004867360927164555,
                0.0045882840640842915,
                0.006458791438490152,
                0.006883166264742613,
                0.0044662002474069595,
                0.006541384384036064,
                -4.73175423394423e-05,
                -0.0052827405743300915,
                -0.007653605192899704,
                0.007069707382470369,
                0.003317762864753604,
                -0.004765492398291826,
                -0.011358147487044334,
                -0.002429154934361577,
                -0.011189299635589123,
                -0.004959338344633579,
                -0.0025160342920571566,
                -0.004002430010586977,
                -0.0037174250464886427,
                0.0015148199163377285,
                0.011339414864778519,
                0.024933265522122383,
                0.028873592615127563,
                0.012937778607010841,
                -0.003970182500779629,
                -0.009883645921945572,
                -0.020708000287413597,
                -0.007953669875860214,
                0.0003936978755518794,
                0.008103941567242146,
                0.009456098079681396,
                0.004084584303200245,
                0.0033988063223659992,
                0.006413059309124947,
                0.0031911549158394337,
                -0.009942328557372093,
                -0.005741009954363108,
                0.0010188897140324116,
                0.008038382045924664,
                -0.00045879767276346684,
                -0.0008930825279094279,
                0.007013468071818352,
                0.006615396123379469,
                0.007834921590983868,
                0.005015423055738211,
                -0.014337882399559021,
                -0.01764122024178505,
                -0.004527336452156305,
                0.00774947926402092,
                0.03246316686272621,
                0.027281127870082855,
                0.021921269595623016,
                0.008069800212979317,
                -0.02294059284031391,
                -0.028967320919036865,
                -0.012318425811827183,
                -0.0013619442470371723,
                0.0028010450769215822,
                0.005971276666969061,
                0.010537265799939632,
                0.0124809006229043,
                0.011963773518800735,
                0.005065741948783398,
                0.005480094347149134,
                0.005895866081118584,
                0.0009072885732166469,
                -0.007467692252248526,
                -0.005826736334711313,
                0.0029993748757988214,
                0.001132124918513,
                -0.013767950236797333,
                -0.0037249315064400434,
                0.0024475681129842997,
                0.010314774699509144,
                -0.022876381874084473,
                -0.017294539138674736,
                0.004102612845599651,
                0.026826122775673866,
                0.035879217088222504,
                0.03390346094965935,
                0.013266131281852722,
                -0.013196536339819431,
                -0.008236084133386612,
                -0.010365759022533894,
                -0.009896772913634777,
                0.00888185016810894,
                0.004268502350896597,
                0.001695831771939993,
                0.012800577096641064,
                0.018470754846930504,
                0.005314756650477648,
                0.004968938883394003,
                -0.0002511180064175278,
                0.0023895211052149534,
                -0.015117103233933449,
                -0.004210374783724546,
                -0.0019500167109072208,
                -0.004212967585772276,
                -0.020615706220269203,
                -0.008847035467624664,
                0.0076897223480045795,
                0.011011868715286255,
                -0.0004296301049180329,
                -0.001825086772441864,
                0.014515858143568039,
                0.030047394335269928,
                0.03650587797164917,
                0.02050906792283058,
                0.012159828096628189,
                0.0094559071585536,
                -0.003261980600655079,
                -0.015160744078457355,
                -0.013235238380730152,
                0.003536839969456196,
                0.0070340391248464584,
                0.00712747173383832,
                0.014734085649251938,
                0.019004426896572113,
                0.01970806159079075,
                0.010665180161595345,
                0.0037964486982673407,
                -0.015886882320046425,
                -0.009624135680496693,
                -0.019578563049435616,
                -0.019252842292189598,
                -0.023863960057497025,
                -0.011575908400118351,
                -0.001638839952647686,
                0.003557369578629732,
                0.015237618237733841,
                0.022235559299588203,
                0.02027803286910057,
                0.021381845697760582,
                0.03750167414546013,
                0.051078032702207565,
                0.028989054262638092,
                0.00865501444786787,
                0.012411876581609249,
                0.023721996694803238,
                -0.010884914547204971,
                -0.017801713198423386,
                0.004191623535007238,
                0.00383836985565722,
                0.007807194255292416,
                0.01892387680709362,
                0.02995876781642437,
                0.01897931471467018,
                0.02481045387685299,
                -0.008473725989460945,
                -0.022873496636748314,
                -0.02060095965862274,
                -0.020039627328515053,
                -0.028897428885102272,
                -0.02722165919840336,
                -0.0034568440169095993,
                0.008990145288407803,
                0.02096576802432537,
                0.016091393306851387,
                0.030861368402838707,
                0.03213684260845184,
                0.031098131090402603,
                0.03390621766448021,
                0.04289703443646431,
                0.015817217528820038,
                0.009804798290133476,
                0.02370244637131691,
                0.03280290961265564,
                0.0008967129979282618,
                -0.010964871384203434,
                -0.003311502281576395,
                0.0010308950440958142,
                0.011210968717932701,
                0.022860417142510414,
                0.025219112634658813,
                0.019252672791481018,
                0.014355286955833435,
                -0.008839394897222519,
                -0.00394043792039156,
                -0.006505665369331837,
                -0.010504284873604774,
                -0.01767118275165558,
                -0.015219362452626228,
                0.030012773349881172,
                0.05210744962096214,
                0.06446077674627304,
                0.03884919732809067,
                0.04221116751432419,
                0.03853198513388634,
                0.010051416233181953,
                0.028474602848291397,
                0.02094867266714573,
                0.04072786122560501,
                0.03131955489516258,
                0.022901440039277077,
                0.026288114488124847,
                -0.013459005393087864,
                -0.00830263365060091,
                0.00019471923587843776,
                0.0018470264039933681,
                0.008100061677396297,
                0.019313151016831398,
                0.03047240525484085,
                0.029158271849155426,
                0.01967008039355278,
                -0.003934320528060198,
                -0.006342225708067417,
                0.0013687025057151914,
                -0.02562747709453106,
                -0.017674855887889862,
                0.0034584717359393835,
                0.06834609061479568,
                0.07453449815511703,
                0.05458772927522659,
                0.054919224232435226,
                0.04287456348538399,
                0.0031858165748417377,
                0.0029155488591641188,
                0.0022485353983938694,
                0.014124135486781597,
                0.02999824844300747,
                0.025764260441064835,
                0.037722084671258926,
                0.03855558857321739,
                -0.012161246500909328,
                -0.000725294928997755,
                0.0016538609052076936,
                0.007993333041667938,
                0.0033159509766846895,
                0.01707843877375126,
                0.031937867403030396,
                0.02456554025411606,
                0.01575944386422634,
                0.007851619273424149,
                -0.0024119161535054445,
                0.011124828830361366,
                -0.028539571911096573,
                -0.03327234089374542,
                0.01489924918860197,
                0.07719005644321442,
                0.0602203793823719,
                0.05469917878508568,
                0.06683498620986938,
                0.03147650882601738,
                -0.013149689882993698,
                -0.03865358233451843,
                -0.02711854688823223,
                0.009819796308875084,
                0.03210394084453583,
                0.03958446905016899,
                0.038115642964839935,
                0.03927280381321907,
                0.00022683847055304796,
                -0.01040367130190134,
                -0.0032557398080825806,
                0.0003812763898167759,
                0.004514807835221291,
                0.015668829903006554,
                0.032716549932956696,
                0.024140076711773872,
                0.024281155318021774,
                0.005058014299720526,
                0.01924087293446064,
                -0.0035982863046228886,
                -0.03791741281747818,
                -0.03849733993411064,
                -0.003144186921417713,
                0.031089333817362785,
                0.04212355241179466,
                0.045150578022003174,
                0.03897660970687866,
                0.015060575678944588,
                -0.027349669486284256,
                -0.046047355979681015,
                -0.013365642167627811,
                0.017824411392211914,
                0.030075911432504654,
                0.025415439158678055,
                0.043164968490600586,
                0.030273376032710075,
                -0.007156659848988056,
                -0.021320240572094917,
                -0.0016066080424934626,
                0.0068697137758135796,
                0.007389281876385212,
                0.015033086761832237,
                0.029903093352913857,
                0.021239284425973892,
                0.01861288584768772,
                0.011504827067255974,
                0.02634451538324356,
                -0.0013513974845409393,
                -0.03603097423911095,
                -0.034873753786087036,
                -0.019812854006886482,
                0.015149521641433239,
                0.04332709684967995,
                0.018998930230736732,
                0.010548437014222145,
                -0.00285532814450562,
                -0.02931169606745243,
                -0.01597166433930397,
                0.005364901851862669,
                0.032132185995578766,
                0.029654761776328087,
                0.018141578882932663,
                0.030793964862823486,
                0.029063036665320396,
                -0.002643643179908395,
                -0.02655876614153385,
                -0.0025004863273352385,
                0.009007425978779793,
                0.00934978760778904,
                0.022041138261556625,
                0.027927467599511147,
                0.02244480513036251,
                0.02976735681295395,
                0.002149519743397832,
                0.008326904848217964,
                -0.0005342394579201937,
                -0.018925264477729797,
                -0.03201627358794212,
                -0.000772214203607291,
                0.008404762484133244,
                0.025855494663119316,
                0.025837937369942665,
                0.008628064766526222,
                -0.009806281886994839,
                0.0012793920468539,
                0.011161787435412407,
                0.01857040822505951,
                0.03326893970370293,
                0.02487792819738388,
                0.025854909792542458,
                0.025421198457479477,
                0.0446290485560894,
                0.0037067311350256205,
                -0.019603200256824493,
                -8.575777610531077e-05,
                0.003708340460434556,
                0.008833914995193481,
                0.01646222360432148,
                0.03443063050508499,
                0.027495190501213074,
                0.04261181503534317,
                -0.005727612413465977,
                -0.003550790948793292,
                -0.008786531165242195,
                -0.025864332914352417,
                -0.00241448194719851,
                -0.00216745026409626,
                0.018656523898243904,
                0.022432342171669006,
                0.02561052143573761,
                -0.003367052413523197,
                -0.01807774417102337,
                -0.008592928759753704,
                0.0010062349028885365,
                0.030893871560692787,
                0.03918115049600601,
                0.047935307025909424,
                0.021814066916704178,
                0.017601586878299713,
                0.017991449683904648,
                0.011692220345139503,
                -0.008199816569685936,
                -0.005146842449903488,
                0.008742950856685638,
                0.011214056983590126,
                0.02313387766480446,
                0.03854622319340706,
                0.018281446769833565,
                0.02918715961277485,
                -0.012781599536538124,
                -0.009738953784108162,
                -0.021554933860898018,
                -0.012034641578793526,
                0.008728724904358387,
                0.003815986681729555,
                0.014326691627502441,
                0.023083599284291267,
                -0.00018677429761737585,
                -0.013212730176746845,
                -0.022975871339440346,
                -0.01309663150459528,
                0.014682567678391933,
                0.03907208517193794,
                0.049169812351465225,
                0.04441061243414879,
                0.031529031693935394,
                0.026252519339323044,
                0.02740035206079483,
                -0.0006924796034581959,
                -0.01117731723934412,
                -0.0020643952302634716,
                0.004674722906202078,
                0.0020490954630076885,
                0.017606472596526146,
                0.03401104733347893,
                0.011470203287899494,
                0.024389414116740227,
                0.005556492600589991,
                -0.021644214168190956,
                -0.015067358501255512,
                -0.005045767407864332,
                -0.00390859367325902,
                0.01130404882133007,
                0.011329572647809982,
                0.02035328932106495,
                -0.02916550822556019,
                -0.02490019053220749,
                -0.027857141569256783,
                -0.003402209375053644,
                0.013733169995248318,
                0.0252017080783844,
                0.030228866264224052,
                0.02992810495197773,
                0.023429622873663902,
                0.027918947860598564,
                0.025032466277480125,
                0.007785723078995943,
                0.004962095525115728,
                0.005635940469801426,
                0.006859863642603159,
                0.005470617674291134,
                0.011368447914719582,
                0.02414976991713047,
                0.00038930418668314815,
                0.022375507280230522,
                0.004515570588409901,
                -0.030343908816576004,
                -0.007584745530039072,
                0.0031332860235124826,
                0.0049196467734873295,
                -0.013475004583597183,
                0.008094745688140392,
                -0.015299640595912933,
                -0.033018410205841064,
                -0.0417899414896965,
                -0.023358572274446487,
                -0.0014124432345852256,
                0.018335280939936638,
                0.026178302243351936,
                0.030561158433556557,
                0.02455168217420578,
                0.019792288541793823,
                0.023350980132818222,
                0.010024989023804665,
                0.006260879337787628,
                0.011046181432902813,
                0.0073691606521606445,
                0.007455353159457445,
                0.009796486236155033,
                0.015997223556041718,
                0.02283155731856823,
                0.0026139700785279274,
                0.009369408711791039,
                -0.003659976879134774,
                -0.011448021046817303,
                -0.003961374517530203,
                0.0031922454945743084,
                -0.010637321509420872,
                -0.008905655704438686,
                -0.00433209165930748,
                -0.015040149912238121,
                -0.022781377658247948,
                -0.023500965908169746,
                -0.016132866963744164,
                -0.0016055020969361067,
                0.017004001885652542,
                0.029643027111887932,
                0.030945362523198128,
                0.014071151614189148,
                0.021460169926285744,
                0.016313131898641586,
                0.00718342699110508,
                0.008043995127081871,
                0.006613456644117832,
                0.002942392835393548,
                0.005770697258412838,
                0.0009560810285620391,
                0.010078622959554195,
                0.012041322886943817,
                0.004902513697743416,
                0.0008048834279179573,
                0.016415219753980637,
                0.0046790651977062225,
                -0.0005022858385927975,
                -0.004909482318907976,
                -0.00621142890304327,
                -0.013497008942067623,
                -0.0033886698074638844,
                -0.0008264608914032578,
                -0.010119643993675709,
                -0.019462162628769875,
                -0.005483631044626236,
                0.010871632024645805,
                0.026680314913392067,
                0.03223404288291931,
                0.022127950564026833,
                0.019943591207265854,
                0.007756316103041172,
                0.012219063006341457,
                0.003821634454652667,
                0.010593831539154053,
                0.000403907208237797,
                0.0029948281589895487,
                0.009303571656346321,
                0.005444829352200031,
                0.002652819035574794,
                0.014926871284842491,
                0.00547640398144722,
                0.007181138265877962,
                0.02198321931064129,
                0.023444464430212975,
                0.023994261398911476,
                0.02764568291604519,
                0.02759455144405365,
                0.027346283197402954,
                0.0231340229511261,
                0.029231909662485123,
                0.013381514698266983,
                0.014962487854063511,
                0.012343532405793667,
                0.016330653801560402,
                0.024992449209094048,
                0.0245649516582489,
                0.016380731016397476,
                0.013980323448777199,
                0.009561322629451752,
                0.008419656194746494,
                0.0028273332864046097,
                0.0037320067640393972,
                -0.00013447276432998478,
                0.007744035217911005,
                0.00030360399978235364,
                0.008030439727008343,
                0.006539462134242058,
                0.009082789532840252,
                0.005715712904930115,
                0.006299247965216637,
                0.025643108412623405,
                0.038851507008075714,
                0.043445516377687454,
                0.04685066267848015,
                0.03506581112742424,
                0.03122609853744507,
                0.02578049525618553,
                0.01725541055202484,
                0.01929987408220768,
                0.007510375697165728,
                0.017267482355237007,
                0.006152442190796137,
                0.006778309121727943,
                0.012424055486917496,
                0.008834457956254482,
                0.0035164612345397472,
                0.005448733456432819,
                0.0037333210930228233,
                0.007959501817822456,
                0.0074982414953410625,
                0.0060608298517763615,
                0.009948492050170898,
                0.0038816207088530064,
                0.006727953907102346,
                0.007208784110844135,
                0.0018067561322823167,
                0.006947292480617762,
                0.010940607637166977,
                0.012503789737820625,
                0.022528020665049553,
                0.030853858217597008,
                0.024919360876083374,
                0.01509155984967947,
                0.007253095507621765,
                1.643988252908457e-05,
                -0.0037265606224536896,
                -0.0064870379865169525,
                0.006836653221398592,
                0.0012205943930894136,
                -0.002556619932875037,
                -0.0024971971288323402,
                -0.003189245006069541,
                -0.0004884821828454733,
                0.002552953315898776,
                0.005135433282703161,
                0.009798835031688213,
                0.0014310465194284916,
                0.00973787996917963,
                0.002161228097975254,
                0.008099584840238094,
                0.005938292481005192,
                0.007466946728527546,
                0.005282176658511162,
                0.0016510237473994493,
                0.00018447630282025784,
                0.002180309733375907,
                0.008228537626564503,
                0.007501048501580954,
                0.006534908898174763,
                0.004524826072156429,
                0.012230648659169674,
                0.00762594910338521,
                0.0007661196868866682,
                -0.003834798699244857,
                -0.0012081273598596454,
                -0.0017893388867378235,
                0.0021122342441231012,
                0.006261986680328846,
                -0.001449551316909492,
                0.006059467326849699,
                0.007233696989715099,
                0.004077085293829441,
                0.0050980267114937305,
                0.0054796552285552025,
                0.0019475934095680714,
                0.0024390805047005415,
                0.008186557330191135,
                0.0014396791812032461,
                0.009306507185101509,
                0.004395785741508007,
                0.0025338351260870695,
                1.7386078980052844e-05,
                0.0023987877648323774,
                0.008997722528874874,
                0.0024537553545087576,
                0.009039958007633686,
                0.003429377218708396,
                0.006957849022001028,
                0.009230936877429485,
                0.005468470510095358,
                0.0055328053422272205,
                0.006056887563318014,
                0.0030493796803057194,
                0.0023937600199133158,
                0.005711785983294249,
                0.008700689300894737,
                0.006257729139178991,
                0.009032553993165493,
                0.0076074074022471905,
                0.009629221633076668,
                0.0015654516173526645,
                0.002022380707785487,
                0.006862793583422899,
                0.007531281560659409,
                0.0012049287324771285,
                0.007712982129305601
            ],
            [
                0.009415349923074245,
                0.008468934334814548,
                0.005991681013256311,
                0.0022194634657353163,
                0.005957829765975475,
                0.004474605433642864,
                0.0010462766513228416,
                0.008475152775645256,
                0.009563351981341839,
                0.009665186516940594,
                0.00582681642845273,
                0.0069892085157334805,
                0.008787528611719608,
                0.0009902771562337875,
                0.0029356118757277727,
                0.003574700327590108,
                0.0013025146909058094,
                0.0011290168622508645,
                0.004285932518541813,
                0.0036530876532197,
                0.007361208088696003,
                0.0044973683543503284,
                0.0037057369481772184,
                0.006856806576251984,
                0.0062524983659386635,
                0.006182179786264896,
                0.00760821346193552,
                0.0010930376593023539,
                0.004666584078222513,
                0.0077863410115242004,
                0.0020046960562467575,
                0.009796194732189178,
                0.0062664044089615345,
                0.0006142669590190053,
                0.009076572023332119,
                0.0033823458943516016,
                0.0029796564485877752,
                0.008668536320328712,
                0.0032979962415993214,
                0.0037049399688839912,
                0.003922502044588327,
                0.004982980899512768,
                0.0062720593996346,
                0.009287779219448566,
                0.002835302846506238,
                0.005098435096442699,
                0.0038178989198058844,
                0.005001421086490154,
                0.0011308188550174236,
                0.006538236979395151,
                0.009598610922694206,
                0.00998806580901146,
                0.006673418916761875,
                0.0008002448012121022,
                0.004767239559441805,
                0.005213424563407898,
                0.004317309241741896,
                0.003781651146709919,
                0.005009399261325598,
                0.0008185891783796251,
                0.005111800506711006,
                0.00671200780197978,
                0.0034336161334067583,
                0.007915017195045948,
                0.008674712851643562,
                -0.0007269427296705544,
                -0.0024892014916986227,
                0.003904632991179824,
                0.0015556708676740527,
                0.006514347158372402,
                0.009119815193116665,
                0.007837660610675812,
                0.0028250215109437704,
                0.004956116899847984,
                0.0011704012285917997,
                0.008604687638580799,
                0.008100641891360283,
                0.005315369926393032,
                0.0012192358262836933,
                0.0063083297573029995,
                0.007718205451965332,
                0.001685940194875002,
                0.00020778417820110917,
                0.003671375336125493,
                0.005671433173120022,
                0.0011551349889487028,
                0.0020707312505692244,
                0.007079003844410181,
                0.009818362072110176,
                -8.070777403190732e-05,
                -0.004855267703533173,
                -0.005536985117942095,
                -0.004003333859145641,
                -0.004725697450339794,
                -0.006689245346933603,
                -0.005545732099562883,
                -0.012387885712087154,
                -0.002832613419741392,
                -0.0029933112673461437,
                0.007966230623424053,
                0.0012203253572806716,
                -0.0069839321076869965,
                -0.009848139248788357,
                -0.006357783451676369,
                -0.002773583633825183,
                0.0010177545482292771,
                0.002418649150058627,
                0.010041339322924614,
                0.003181510604918003,
                0.01003780122846365,
                0.008063684217631817,
                0.008164364844560623,
                0.00800558552145958,
                0.0011312145506963134,
                0.008609877899289131,
                0.0021305580157786608,
                0.009157241322100163,
                -0.0013920634519308805,
                -0.004464810248464346,
                -0.011466404423117638,
                -0.017369933426380157,
                -0.022948458790779114,
                -0.01512982975691557,
                -0.021425748243927956,
                -0.024187404662370682,
                -0.022478943690657616,
                -0.0034316510427743196,
                -0.011360769160091877,
                -0.02702048420906067,
                -0.02851504646241665,
                -0.027547476813197136,
                -0.015088560059666634,
                -0.014277921989560127,
                -0.0063367304392158985,
                -0.0002915206423494965,
                0.005769117269665003,
                0.0037829852662980556,
                0.001245382009074092,
                0.00980295054614544,
                0.003342858050018549,
                0.0016085398383438587,
                0.005346266087144613,
                0.008438029326498508,
                0.0036657466553151608,
                -0.0011793310986831784,
                -0.0008354414603672922,
                0.01116863265633583,
                0.010987822897732258,
                0.0020331323612481356,
                -0.014826827682554722,
                -0.02728286385536194,
                -0.01518779993057251,
                -0.02103257179260254,
                -0.009723898954689503,
                0.002162269316613674,
                -0.01999245025217533,
                -0.04275258630514145,
                -0.03307842090725899,
                -0.009790569543838501,
                -0.005336057394742966,
                -0.015825986862182617,
                -0.008927597664296627,
                -0.015576150268316269,
                -0.003818116383627057,
                -0.006487203761935234,
                -0.001401479123160243,
                0.002802604343742132,
                0.006744239013642073,
                0.003205392276868224,
                0.002585988026112318,
                0.00991438515484333,
                0.007311333902180195,
                -0.005319053772836924,
                -0.008569319732487202,
                -0.002630383474752307,
                0.0010347102070227265,
                0.0010009751422330737,
                -0.00215398077853024,
                -0.013160714879631996,
                -0.00659059127792716,
                0.006227228324860334,
                0.017701420933008194,
                0.01291727926582098,
                -0.007790831848978996,
                -0.03933078423142433,
                -0.03732527792453766,
                -0.01199453417211771,
                0.00840538926422596,
                -0.011335465125739574,
                -0.013669794425368309,
                -0.02985634095966816,
                -0.01850251667201519,
                -0.008045905269682407,
                0.0018144375644624233,
                0.007719083689153194,
                0.0051656379364430904,
                0.001882654963992536,
                -0.0005718734464608133,
                0.003111200639978051,
                0.008908034302294254,
                -0.00010723023297032341,
                0.004161190241575241,
                0.02081306464970112,
                0.021711967885494232,
                0.02358475886285305,
                0.019982770085334778,
                0.019515108317136765,
                0.022973760962486267,
                0.04161721467971802,
                0.05448118597269058,
                0.05258592963218689,
                0.032973408699035645,
                -0.024123424664139748,
                -0.05289340019226074,
                -0.05387933552265167,
                -0.024842072278261185,
                -0.005552193149924278,
                0.0030654713045805693,
                -0.012406907044351101,
                -0.029839545488357544,
                -0.017397534102201462,
                0.002436557086184621,
                0.004652672912925482,
                0.00016006162331905216,
                0.008788815699517727,
                0.0009322842233814299,
                0.0032443967647850513,
                0.011244835332036018,
                0.004074934870004654,
                0.01804949901998043,
                0.039680495858192444,
                0.0625232458114624,
                0.042428430169820786,
                0.05416654795408249,
                0.06727234274148941,
                0.0668952688574791,
                0.07107614725828171,
                0.09286542236804962,
                0.08755894750356674,
                0.06579762697219849,
                0.007520428858697414,
                -0.04330702871084213,
                -0.049710243940353394,
                -0.004534101579338312,
                0.007148064207285643,
                0.02848128229379654,
                0.003278144635260105,
                -0.013139043934643269,
                -0.020949365571141243,
                -0.003782806219533086,
                0.0013171391328796744,
